digraph Tree {
node [shape=box, style="filled, rounded", color="black", fontname=helvetica] ;
edge [fontname=helvetica] ;
0 [label="num_major_vessels <= 0.5\ngini = 0.5\nsamples = 100.0%\nvalue = [0.47, 0.53]\nclass = disease", fillcolor="#e9f4fc"] ;
1 [label="sex_male <= 0.5\n0.39\n60.3%\n[0.27, 0.73]\ndisease", fillcolor="#80c0ee"] ;
0 -> 1 [labeldistance=2.5, labelangle=45, headlabel="True"] ;
2 [label="st_depression <= 1.15\n0.25\n20.5%\n[0.15, 0.85]\ndisease", fillcolor="#5baeea"] ;
1 -> 2 ;
3 [label="thalassemia_reversable defect <= 0.5\n0.13\n16.6%\n[0.07, 0.93]\ndisease", fillcolor="#48a4e7"] ;
2 -> 3 ;
4 [label="st_slope_flat <= 0.5\n0.05\n15.9%\n[0.02, 0.98]\ndisease", fillcolor="#3e9fe6"] ;
3 -> 4 ;
5 [label="0.0\n5.3%\n[0.0, 1.0]\ndisease", fillcolor="#399de5"] ;
4 -> 5 ;
6 [label="0.08\n10.6%\n[0.04, 0.96]\ndisease", fillcolor="#42a1e6"] ;
4 -> 6 ;
7 [label="0.0\n0.7%\n[1.0, 0.0]\nno disease", fillcolor="#e58139"] ;
3 -> 7 ;
8 [label="age <= 58.5\n0.5\n4.0%\n[0.45, 0.55]\ndisease", fillcolor="#deeffb"] ;
2 -> 8 ;
9 [label="thalassemia_reversable defect <= 0.5\n0.24\n3.3%\n[0.14, 0.86]\ndisease", fillcolor="#5aade9"] ;
8 -> 9 ;
10 [label="0.0\n2.6%\n[0.0, 1.0]\ndisease", fillcolor="#399de5"] ;
9 -> 10 ;
11 [label="0.0\n0.7%\n[1.0, 0.0]\nno disease", fillcolor="#e58139"] ;
9 -> 11 ;
12 [label="0.0\n0.7%\n[1.0, 0.0]\nno disease", fillcolor="#e58139"] ;
8 -> 12 ;
13 [label="thalassemia_reversable defect <= 0.5\n0.44\n39.7%\n[0.33, 0.67]\ndisease", fillcolor="#9ccef2"] ;
1 -> 13 ;
14 [label="fasting_blood_sugar_lower than 120mg/ml <= 0.5\n0.34\n25.2%\n[0.22, 0.78]\ndisease", fillcolor="#70b8ec"] ;
13 -> 14 ;
15 [label="0.0\n2.0%\n[0.0, 1.0]\ndisease", fillcolor="#399de5"] ;
14 -> 15 ;
16 [label="chest_pain_type_atypical angina <= 0.5\n0.38\n23.2%\n[0.25, 0.75]\ndisease", fillcolor="#7bbeee"] ;
14 -> 16 ;
17 [label="0.33\n16.6%\n[0.21, 0.79]\ndisease", fillcolor="#6eb7ec"] ;
16 -> 17 ;
18 [label="0.46\n6.6%\n[0.36, 0.64]\ndisease", fillcolor="#a7d3f3"] ;
16 -> 18 ;
19 [label="fasting_blood_sugar_lower than 120mg/ml <= 0.5\n0.5\n14.6%\n[0.55, 0.45]\nno disease", fillcolor="#fbeade"] ;
13 -> 19 ;
20 [label="st_slope_flat <= 0.5\n0.32\n2.6%\n[0.2, 0.8]\ndisease", fillcolor="#6ab6ec"] ;
19 -> 20 ;
21 [label="0.38\n2.0%\n[0.25, 0.75]\ndisease", fillcolor="#7bbeee"] ;
20 -> 21 ;
22 [label="0.0\n0.7%\n[0.0, 1.0]\ndisease", fillcolor="#399de5"] ;
20 -> 22 ;
23 [label="rest_ecg_normal <= 0.5\n0.48\n11.9%\n[0.61, 0.39]\nno disease", fillcolor="#f6d3b9"] ;
19 -> 23 ;
24 [label="0.35\n4.6%\n[0.78, 0.22]\nno disease", fillcolor="#eca572"] ;
23 -> 24 ;
25 [label="0.5\n7.3%\n[0.53, 0.47]\nno disease", fillcolor="#fcf2eb"] ;
23 -> 25 ;
26 [label="thalassemia_fixed defect <= 0.5\n0.33\n39.7%\n[0.79, 0.21]\nno disease", fillcolor="#eca36e"] ;
0 -> 26 [labeldistance=2.5, labelangle=-45, headlabel="False"] ;
27 [label="resting_blood_pressure <= 109.0\n0.14\n23.8%\n[0.93, 0.07]\nno disease", fillcolor="#e78b49"] ;
26 -> 27 ;
28 [label="0.0\n0.7%\n[0.0, 1.0]\ndisease", fillcolor="#399de5"] ;
27 -> 28 ;
29 [label="num_major_vessels <= 3.5\n0.11\n23.2%\n[0.94, 0.06]\nno disease", fillcolor="#e78945"] ;
27 -> 29 ;
30 [label="resting_blood_pressure <= 148.0\n0.04\n22.5%\n[0.98, 0.02]\nno disease", fillcolor="#e6843d"] ;
29 -> 30 ;
31 [label="0.0\n15.2%\n[1.0, 0.0]\nno disease", fillcolor="#e58139"] ;
30 -> 31 ;
32 [label="0.1\n7.3%\n[0.94, 0.06]\nno disease", fillcolor="#e78845"] ;
30 -> 32 ;
33 [label="0.0\n0.7%\n[0.0, 1.0]\ndisease", fillcolor="#399de5"] ;
29 -> 33 ;
34 [label="sex_male <= 0.5\n0.48\n15.9%\n[0.61, 0.39]\nno disease", fillcolor="#f6d2b8"] ;
26 -> 34 ;
35 [label="chest_pain_type_typical angina <= 0.5\n0.48\n6.6%\n[0.4, 0.6]\ndisease", fillcolor="#bddef6"] ;
34 -> 35 ;
36 [label="st_slope_upsloping <= 0.5\n0.18\n5.3%\n[0.1, 0.9]\ndisease", fillcolor="#4fa8e8"] ;
35 -> 36 ;
37 [label="0.0\n2.6%\n[0.0, 1.0]\ndisease", fillcolor="#399de5"] ;
36 -> 37 ;
38 [label="0.32\n2.6%\n[0.2, 0.8]\ndisease", fillcolor="#6ab6ec"] ;
36 -> 38 ;
39 [label="0.0\n1.3%\n[1.0, 0.0]\nno disease", fillcolor="#e58139"] ;
35 -> 39 ;
40 [label="st_slope_upsloping <= 0.5\n0.39\n9.3%\n[0.73, 0.27]\nno disease", fillcolor="#efaf82"] ;
34 -> 40 ;
41 [label="chest_pain_type_atypical angina <= 0.5\n0.48\n6.6%\n[0.59, 0.41]\nno disease", fillcolor="#f7d9c4"] ;
40 -> 41 ;
42 [label="0.42\n4.0%\n[0.7, 0.3]\nno disease", fillcolor="#f0b78e"] ;
41 -> 42 ;
43 [label="0.49\n2.6%\n[0.43, 0.57]\ndisease", fillcolor="#cee6f8"] ;
41 -> 43 ;
44 [label="0.0\n2.6%\n[1.0, 0.0]\nno disease", fillcolor="#e58139"] ;
40 -> 44 ;
}